{"biases":[[[-970.2985229492188],[-485.46002197265625],[70.913330078125],[-203.35853576660156],[126.1979751586914]],[[13.130151748657227],[-58.368072509765625],[39.700687408447266],[36.91107940673828],[-28.890642166137695],[-1.6474460363388062],[-3.395888090133667],[2.5578420162200928],[22.595970153808594],[-33.64448165893555]],[[-1.5126497745513916],[-0.9269565343856812],[3.771266460418701],[-0.4183187782764435]],[[0.7314097881317139]]],"weights":[[[-67.78219604492188,1898.1636962890625],[289.10943603515625,583.9033203125],[-111.89630889892578,1856.0264892578125],[74.1671142578125,278.7673645019531],[-90.38992309570312,-118.6695785522461]],[[2.090073585510254,-13.663453102111816,0.5065513253211975,1.5300841331481934,9.869160652160645],[28.132936477661133,15.12388801574707,124.54654693603516,-4.579524040222168,-59.129173278808594],[-8.721816062927246,-71.64860534667969,-10.360214233398438,-48.55778884887695,40.391292572021484],[-96.8437728881836,-9.2085599899292,27.229637145996094,-10.932622909545898,37.323463439941406],[1.3312534093856812,7.7339606285095215,17.278329849243164,56.39082336425781,-28.243030548095703],[-6.455783367156982,-17.526500701904297,-24.211885452270508,3.746408700942993,-2.9590466022491455],[-4.315968990325928,-18.4341983795166,-25.24371337890625,-25.537458419799805,-0.932613730430603],[-0.2568782567977905,1.74635910987854,39.805519104003906,12.783631324768066,1.553516149520874],[-39.90818786621094,-14.384666442871094,-38.25190734863281,0.5641926527023315,26.56163787841797],[60.811031341552734,-7.376898288726807,-1.3526184558868408,1.5182186365127563,-28.89466667175293]],[[6.615090370178223,-2.5712475776672363,14.364944458007812,6.999212265014648,-7.444113254547119,4.142331600189209,1.6920610666275024,-0.6719940304756165,2.718632459640503,-1.6303843259811401],[-0.03647926077246666,7.490489482879639,-1.4702248573303223,-9.621040344238281,-0.5837420225143433,-2.376218318939209,-1.1161959171295166,1.5183751583099365,-6.8869404792785645,8.293505668640137],[2.367004871368408,2.3541719913482666,-1.3187910318374634,1.6682380437850952,2.172774076461792,1.2928375005722046,-2.332650899887085,1.944151520729065,1.2298799753189087,1.0002329349517822],[0.15772497653961182,-3.4910898208618164,2.1825623512268066,1.5388990640640259,-2.1789135932922363,2.0727765560150146,1.4252065420150757,-2.8017783164978027,-2.216904401779175,-1.4126520156860352]],[[-2.3027188777923584,1.061468243598938,3.202716827392578,-1.5764225721359253]]]}